<Nnet> 
<Splice> 440 40 
[ -5 -4 -3 -2 -1 0 1 2 3 4 5 ]
<!EndOfComponent> 
<AddShift> 440 440 
<LearnRateCoef> 0  [ 1.22722 -0.00372801 0.02855971 -0.02391857 0.0307413 -0.03119055 -0.02963203 -0.003668601 -0.02179508 -0.02048868 -0.0162769 -0.004478157 0.02835392 -0.01658546 0.001944409 0.00114312 -0.007622372 -0.003916326 -0.01894052 -0.01239969 -0.02642528 0.02467307 0.02348223 -0.01377325 -0.002332543 0.03314857 -0.006188824 -0.02972128 -0.006218762 -0.00722759 0.01039259 -0.0001828663 -0.01008493 0.007301278 0.008413927 0.002412139 -0.01725825 0.009479097 0.01835567 0.00618511 1.22596 -0.004060461 0.02882927 -0.02432524 0.03083957 -0.03090643 -0.02975444 -0.003522373 -0.0217797 -0.02087032 -0.01601043 -0.004719311 0.02843036 -0.01696613 0.001834602 0.001163356 -0.007630821 -0.003658195 -0.01884997 -0.01216127 -0.02622095 0.02448607 0.02338669 -0.01392029 -0.00222797 0.03321557 -0.006196041 -0.02968548 -0.006554682 -0.00731752 0.01030112 -0.0001486217 -0.01009 0.007404782 0.008378863 0.002445541 -0.01729863 0.009423343 0.01793197 0.006316153 1.224942 -0.004271652 0.02855402 -0.02466101 0.03090009 -0.03051998 -0.02985586 -0.003356754 -0.02181046 -0.02120572 -0.01573271 -0.004938737 0.02838363 -0.01530872 0.001746236 0.001213125 -0.007645698 -0.003490301 -0.01874342 -0.01182581 -0.02601177 0.02427588 0.02327086 -0.01408743 -0.002197655 0.03328802 -0.006157611 -0.02945513 -0.006875265 -0.007307781 0.01014514 -0.0001415557 -0.01002985 0.007449401 0.008291206 0.002497823 -0.01722686 0.009356948 0.017687 0.006310351 1.224074 -0.004418033 0.02753656 -0.02496659 0.03093904 -0.03010597 -0.02995602 -0.003205246 -0.02157174 -0.0214875 -0.01542277 -0.005166607 0.02841222 -0.0154363 0.001588927 0.00125095 -0.007684734 -0.002748889 -0.01858626 -0.01141751 -0.0258056 0.02411589 0.02322523 -0.01424811 -0.002169152 0.0333569 -0.006061914 -0.02926432 -0.00713179 -0.007303968 0.009959663 -9.190293e-05 -0.01004462 0.007581894 0.008135061 0.002482799 -0.01725017 0.009383352 0.01651591 0.006301448 1.223352 -0.004487114 0.02672116 -0.02525156 0.03094339 -0.0296366 -0.03004821 -0.002994322 -0.02190821 -0.02168247 -0.01505853 -0.005384517 0.02850086 -0.01571613 0.001463514 0.001287157 -0.007663564 -0.002708597 -0.01854734 -0.01096458 -0.02562205 0.02394323 0.02315397 -0.01442612 -0.002121007 0.03339767 -0.005894269 -0.0291982 -0.007331766 -0.00720293 0.009824481 -0.0001317894 -0.01004704 0.007772222 0.008045881 0.002487027 -0.01722015 0.009330246 0.01704387 0.006375398 1.222789 -0.004457991 0.02653823 -0.02552751 0.03094029 -0.02923941 -0.03012324 -0.002761965 -0.0230058 -0.02182093 -0.01468038 -0.005601468 0.02857144 -0.01588601 0.001290554 0.001295884 -0.007609969 -0.002509108 -0.01848121 -0.01047705 -0.02545626 0.02383958 0.02314073 -0.01458122 -0.002069427 0.03339663 -0.005923392 -0.02977653 -0.007525687 -0.007214855 0.009743229 -9.521626e-05 -0.01009652 0.00794523 0.007986763 0.002514738 -0.0172322 0.009389563 0.01629082 0.006426542 1.222226 -0.004428868 0.0263553 -0.02580346 0.03093718 -0.02884222 -0.03019826 -0.002529608 -0.02410339 -0.0219594 -0.01430224 -0.005818418 0.02864202 -0.0160559 0.001117594 0.001304612 -0.007556376 -0.002309619 -0.01841509 -0.009989522 -0.02529046 0.02373593 0.0231275 -0.01473632 -0.002017847 0.03339559 -0.005952515 -0.03035486 -0.007719607 -0.00722678 0.009661975 -5.864308e-05 -0.01014601 0.008118237 0.007927643 0.002542449 -0.01724426 0.00944888 0.01553776 0.006477686 1.221593 -0.004384848 0.02595888 -0.02601485 0.03088243 -0.02845122 -0.03023168 -0.002298544 -0.0249192 -0.02204204 -0.01391181 -0.005969834 0.0287826 -0.01604583 0.0010103 0.001305608 -0.007415336 -0.002290968 -0.01849114 -0.0095367 -0.02507249 0.02366216 0.02307099 -0.01487589 -0.001930924 0.03341632 -0.005969342 -0.0308929 -0.007855396 -0.007259432 0.009907844 -0.0001164125 -0.01005845 0.008168847 0.007929901 0.002726627 -0.017198 0.00942462 0.01536849 0.006515529 1.220901 -0.004311144 0.02549348 -0.02615026 0.03079797 -0.02815187 -0.03024863 -0.002121066 -0.02575979 -0.02206753 -0.01355869 -0.006089633 0.02881458 -0.01620359 0.0009377862 0.001273241 -0.007300046 -0.002501514 -0.01861123 -0.009153796 -0.02485514 0.02364059 0.02290472 -0.01497864 -0.001856573 0.03346742 -0.005990972 -0.0321044 -0.007937186 -0.007352286 0.01017123 -0.0001125299 -0.01012937 0.008166335 0.007990196 0.003094577 -0.01739236 0.009462979 0.01498994 0.006511123 1.220146 -0.004215625 0.02494321 -0.02622647 0.03068567 -0.02800113 -0.0302139 -0.001969461 -0.02684093 -0.02204534 -0.0132828 -0.006133705 0.02887973 -0.01616997 0.0008818044 0.001259015 -0.007170815 -0.003104057 -0.01876106 -0.008802073 -0.02466811 0.02366268 0.0226024 -0.01503294 -0.001858949 0.0335113 -0.00598227 -0.03236852 -0.007954936 -0.007361096 0.01011035 -0.0001405605 -0.01020835 0.0081348 0.008081664 0.003379195 -0.01767054 0.009481621 0.01471705 0.006428335 1.219326 -0.004119373 0.02415393 -0.02628094 0.03054953 -0.02790331 -0.03019286 -0.001966366 -0.02805763 -0.021975 -0.01316799 -0.006126488 0.02914091 -0.01595552 0.0008565516 0.001230706 -0.007046607 -0.003067523 -0.01881642 -0.008652193 -0.02458541 0.02372934 0.02250084 -0.01505547 -0.001903455 0.03358472 -0.006050504 -0.03316974 -0.007806698 -0.007335049 0.01008634 -0.0002032504 -0.01017031 0.008253498 0.008133753 0.003444527 -0.017708 0.009590503 0.01441017 0.006255331 ]
<!EndOfComponent> 
<Rescale> 440 440 
<LearnRateCoef> 0  [ 0.2743843 0.7067566 0.5122573 0.9488681 0.9732106 0.9699296 1.019516 1.113751 0.5375047 0.9455189 1.068199 1.058542 0.9821635 0.5983551 1.039295 1.092384 1.138817 0.5536453 1.025389 1.034362 1.075743 1.080469 0.956125 1.099984 1.073507 1.010453 1.117689 0.6360363 1.037361 1.06593 0.9888533 1.041978 0.9814891 0.9812039 1.04942 0.9991978 1.013819 0.9831358 0.7766454 0.9644564 0.2744011 0.7072418 0.5124316 0.9502532 0.9745662 0.9707022 1.02186 1.11482 0.5368941 0.947898 1.069591 1.060817 0.9819944 0.5979234 1.043262 1.094992 1.140073 0.5524973 1.023699 1.034975 1.077396 1.084003 0.9537113 1.102958 1.074727 1.013904 1.117096 0.6343256 1.038481 1.063959 0.9867174 1.040173 0.9809889 0.9805098 1.047319 0.9973052 1.012497 0.9835908 0.7766622 0.9640018 0.2744224 0.7077475 0.512262 0.9516399 0.9758947 0.9709764 1.024194 1.115768 0.5362706 0.950301 1.070702 1.063088 0.9811351 0.5973821 1.047195 1.097587 1.141087 0.5515545 1.021713 1.03519 1.07875 1.087532 0.9513656 1.105858 1.075633 1.017344 1.116342 0.6327108 1.039095 1.061755 0.9845273 1.03817 0.9802079 0.9794918 1.04502 0.995343 1.011158 0.9834347 0.7765914 0.9634907 0.2744439 0.7082014 0.5118309 0.952861 0.9770436 0.9699408 1.026343 1.115658 0.5357214 0.952539 1.070662 1.065044 0.9829963 0.5984359 1.050676 1.099842 1.140632 0.5505162 1.019286 1.033801 1.078871 1.09071 0.9490537 1.10824 1.075305 1.020203 1.115205 0.6312217 1.038344 1.059322 0.9823502 1.03614 0.9810019 0.9798699 1.0427 0.9934678 1.009908 0.9820439 0.7765066 0.9629688 0.2744621 0.7084821 0.5119746 0.9536579 0.977784 0.9684215 1.027927 1.114375 0.5349247 0.9542877 1.069496 1.066129 0.9854516 0.5995092 1.052999 1.10135 1.138791 0.5496043 1.017793 1.031273 1.077675 1.092849 0.946886 1.109599 1.073933 1.021748 1.114072 0.629731 1.036591 1.057745 0.9807938 1.034298 0.9825737 0.9809498 1.040944 0.9920281 1.008919 0.9807566 0.7770782 0.9622017 0.2744764 0.7084093 0.5125585 0.9536719 0.9778116 0.9680231 1.028441 1.113135 0.5338162 0.9550297 1.06807 1.06593 0.988014 0.6005946 1.053312 1.101618 1.136928 0.5487369 1.017855 1.028975 1.076181 1.093032 0.9445131 1.109355 1.072919 1.021166 1.113348 0.6282679 1.035403 1.057137 0.9794406 1.033561 0.9843355 0.98223 1.039788 0.9907169 1.008229 0.9810038 0.7788282 0.9610122 0.2744907 0.7083365 0.5131444 0.953686 0.9778392 0.9676253 1.028957 1.111899 0.5327148 0.9557736 1.066649 1.065731 0.9905966 0.6016858 1.053626 1.101887 1.135074 0.5478737 1.017917 1.026693 1.074694 1.093216 0.9421579 1.109111 1.071908 1.020585 1.112626 0.626815 1.034219 1.056531 0.9780929 1.032825 0.9861068 0.9835153 1.038636 0.9894109 1.007539 0.9812511 0.7805904 0.9598271 0.2745008 0.7078916 0.5135219 0.952949 0.9771451 0.9670122 1.028203 1.110708 0.5322544 0.9552657 1.065467 1.064319 0.9932009 0.6027591 1.051681 1.100838 1.133442 0.5470046 1.018879 1.024582 1.073484 1.091334 0.9404703 1.107259 1.070892 1.018055 1.112685 0.625487 1.032977 1.056739 0.9781231 1.032999 0.9880548 0.9848378 1.038877 0.9894889 1.007669 0.9811681 0.7820815 0.9601418 0.2745079 0.7072085 0.5137891 0.9517137 0.9759778 0.9658712 1.026647 1.108986 0.5318215 0.9538173 1.063555 1.062184 0.9957991 0.603876 1.048503 1.098868 1.130921 0.5463896 1.020834 1.02209 1.071459 1.088321 0.9399296 1.104444 1.069163 1.014473 1.112628 0.6253717 1.031157 1.058054 0.978102 1.034116 0.9901987 0.986366 1.040116 0.9903789 1.008443 0.980967 0.7836824 0.9606159 0.2745142 0.7064024 0.5140622 0.9502418 0.9745805 0.9645284 1.024734 1.106703 0.5311782 0.9519235 1.060859 1.059636 0.9985126 0.6049735 1.044767 1.096398 1.127913 0.5466684 1.022733 1.019213 1.068466 1.084761 0.9399316 1.101151 1.06688 1.010351 1.112516 0.6255264 1.028869 1.059387 0.9788451 1.035234 0.9924728 0.988459 1.041147 0.9909214 1.00905 0.9805795 0.7852947 0.9601337 0.2745243 0.7055866 0.5143364 0.9487602 0.9731881 0.963173 1.022796 1.104405 0.5304546 0.9500201 1.05809 1.05709 1.001281 0.6060146 1.041004 1.093924 1.12487 0.546633 1.024448 1.016242 1.065364 1.081178 0.9396622 1.097909 1.064529 1.006243 1.112417 0.6254017 1.026514 1.060732 0.97954 1.036304 0.9948714 0.9905573 1.042005 0.9912941 1.009566 0.9801486 0.7869399 0.9593962 ]
<!EndOfComponent> 
</Nnet> 
